5 2 5 134 27
4 6 6 6 5 
-38.2314 31.9587 195.146 146.005
2.99266 -2.47255 -0.868362 -2.76641 0.612465 -3.95211 -3.81416 -1.52977 -1.59723 -2.98373 -0.0960077 4.23401 3.05536 -1.36613 -2.02417 -2.97405 -7.72962 -1.57256 0.42904 -7.55272 7.61086 -5.05998 -4.78349 0.945733 -1.54802 -1.17925 0.469774 -3.40507 1.25857 -3.18916 -2.19693 2.56109 -2.03077 3.01571 -6.41098 3.32244 0.426884 1.00419 -0.116335 0.99734 0.572146 1.99116 1.28154 1.7803 3.59671 -0.115858 3.88212 -0.00933443 3.13012 -1.8687 -1.92626 3.13938 1.69122 1.80722 2.75937 -3.79256 -1.00831 -0.183708 3.91891 -4.12145 1.02374 -3.32354 2.18906 -1.73365 -0.895703 -0.020368 -1.00812 0.929375 2.90166 -1.57548 5.10482 2.06618 2.36516 0.0741394 -4.50435 -1.24145 0.700445 4.94472 -0.00015485 -2.55601 2.77994 -1.4672 2.06018 0.409002 2.67709 0.705026 -5.18278 -1.00295 2.73379 2.47741 5.73237 -2.17517 1.02534 -0.677065 0.491068 3.03523 0.643545 -0.836105 0.947428 -1.37741 2.4745 7.40307 -0.0347538 -0.429727 0.301232 -5.19191 -0.697778 -0.227581 0.310056 5.38983 -3.50386 -3.05794 -2.22169 0.36369 2.56021 -4.52068 -3.63252 5.83002 -5.36584 -1.43175 1.79913 -3.11877 4.33867 1.42966 1.27476 -5.0359 5.68958 -5.98134 1.68694 -1.25356 0.268625 7.05624 -1.81699 0.144098 
2.99669 0.205119 -5.61993 3.15753 0.329026 0.436676 0.614485 -0.98975 2.70408 -2.06599 -1.76288 -0.901727 2.89899 3.46713 3.1204 -1.50131 1.60581 2.90501 2.28347 -0.478616 -2.54617 3.61385 -4.96719 -3.89461 -3.70956 -4.03353 -1.88435 